<?xml version="1.0"?>
<opencv_storage>
<cascade>
  <stageType>BOOST</stageType>
  <featureType>HAAR</featureType>
  <height>24</height>
  <width>24</width>
  <stageParams>
    <boostType>GAB</boostType>
    <minHitRate>9.9500000476837158e-01</minHitRate>
    <maxFalseAlarm>4.0000000596046448e-01</maxFalseAlarm>
    <weightTrimRate>9.4999999999999996e-01</weightTrimRate>
    <maxDepth>1</maxDepth>
    <maxWeakCount>100</maxWeakCount></stageParams>
  <featureParams>
    <maxCatCount>0</maxCatCount>
    <featSize>1</featSize>
    <mode>BASIC</mode></featureParams>
  <stageNum>1</stageNum>
  <stages>
    <!-- stage 0 -->
    <_>
      <maxWeakCount>6</maxWeakCount>
      <stageThreshold>-1.4351234436035156e+00</stageThreshold>
      <weakClassifiers>
        <_>
          <internalNodes>
            0 -1 3 2.3555379360914230e-02</internalNodes>
          <leafValues>
            -5.6945025920867920e-01 8.4349066019058228e-01</leafValues></_>
        <_>
          <internalNodes>
            0 -1 1 1.1474412865936756e-02</internalNodes>
          <leafValues>
            -4.7203126549720764e-01 7.4590188264846802e-01</leafValues></_>
        <_>
          <internalNodes>
            0 -1 0 -2.8152327984571457e-02</internalNodes>
          <leafValues>
            7.4933552742004395e-01 -3.2976973056793213e-01</leafValues></_>
        <_>
          <internalNodes>
            0 -1 5 4.3983282521367073e-03</internalNodes>
          <leafValues>
            -3.7747359275817871e-01 7.0151168107986450e-01</leafValues></_>
        <_>
          <internalNodes>
            0 -1 4 4.5961667783558369e-03</internalNodes>
          <leafValues>
            -4.5664197206497192e-01 5.8147364854812622e-01</leafValues></_>
        <_>
          <internalNodes>
            0 -1 2 -3.8602270185947418e-02</internalNodes>
          <leafValues>
            7.7024340629577637e-01 -3.2171735167503357e-01</leafValues></_></weakClassifiers></_></stages>
  <features>
    <_>
      <rects>
        <_>
          5 11 12 4 -1.</_>
        <_>
          9 11 4 4 3.</_></rects>
      <tilted>0</tilted></_>
    <_>
      <rects>
        <_>
          9 4 7 4 -1.</_>
        <_>
          9 6 7 2 2.</_></rects>
      <tilted>0</tilted></_>
    <_>
      <rects>
        <_>
          9 6 4 9 -1.</_>
        <_>
          9 9 4 3 3.</_></rects>
      <tilted>0</tilted></_>
    <_>
      <rects>
        <_>
          9 12 5 9 -1.</_>
        <_>
          9 15 5 3 3.</_></rects>
      <tilted>0</tilted></_>
    <_>
      <rects>
        <_>
          13 9 3 7 -1.</_>
        <_>
          14 9 1 7 3.</_></rects>
      <tilted>0</tilted></_>
    <_>
      <rects>
        <_>
          14 11 3 3 -1.</_>
        <_>
          15 11 1 3 3.</_></rects>
      <tilted>0</tilted></_></features></cascade>
</opencv_storage>
