<?xml version="1.0"?>
<opencv_storage>
<stage0>
  <maxWeakCount>6</maxWeakCount>
  <stageThreshold>-1.4351234436035156e+00</stageThreshold>
  <weakClassifiers>
    <_>
      <internalNodes>
        0 -1 104915 2.3555379360914230e-02</internalNodes>
      <leafValues>
        -5.6945025920867920e-01 8.4349066019058228e-01</leafValues></_>
    <_>
      <internalNodes>
        0 -1 101516 1.1474412865936756e-02</internalNodes>
      <leafValues>
        -4.7203126549720764e-01 7.4590188264846802e-01</leafValues></_>
    <_>
      <internalNodes>
        0 -1 67824 -2.8152327984571457e-02</internalNodes>
      <leafValues>
        7.4933552742004395e-01 -3.2976973056793213e-01</leafValues></_>
    <_>
      <internalNodes>
        0 -1 137630 4.3983282521367073e-03</internalNodes>
      <leafValues>
        -3.7747359275817871e-01 7.0151168107986450e-01</leafValues></_>
    <_>
      <internalNodes>
        0 -1 131546 4.5961667783558369e-03</internalNodes>
      <leafValues>
        -4.5664197206497192e-01 5.8147364854812622e-01</leafValues></_>
    <_>
      <internalNodes>
        0 -1 102394 -3.8602270185947418e-02</internalNodes>
      <leafValues>
        7.7024340629577637e-01 -3.2171735167503357e-01</leafValues></_></weakClassifiers></stage0>
</opencv_storage>
