<?xml version="1.0"?>
<opencv_storage>
<cascade>
  <stageType>BOOST</stageType>
  <featureType>HAAR</featureType>
  <height>24</height>
  <width>24</width>
  <stageParams>
    <boostType>GAB</boostType>
    <minHitRate>9.9500000476837158e-01</minHitRate>
    <maxFalseAlarm>4.0000000596046448e-01</maxFalseAlarm>
    <weightTrimRate>9.4999999999999996e-01</weightTrimRate>
    <maxDepth>1</maxDepth>
    <maxWeakCount>100</maxWeakCount></stageParams>
  <featureParams>
    <maxCatCount>0</maxCatCount>
    <featSize>1</featSize>
    <mode>BASIC</mode></featureParams>
  <stageNum>12</stageNum>
  <stages>
    <!-- stage 0 -->
    <_>
      <maxWeakCount>6</maxWeakCount>
      <stageThreshold>-1.4351234436035156e+00</stageThreshold>
      <weakClassifiers>
        <_>
          <internalNodes>
            0 -1 57 2.3555379360914230e-02</internalNodes>
          <leafValues>
            -5.6945025920867920e-01 8.4349066019058228e-01</leafValues></_>
        <_>
          <internalNodes>
            0 -1 52 1.1474412865936756e-02</internalNodes>
          <leafValues>
            -4.7203126549720764e-01 7.4590188264846802e-01</leafValues></_>
        <_>
          <internalNodes>
            0 -1 20 -2.8152327984571457e-02</internalNodes>
          <leafValues>
            7.4933552742004395e-01 -3.2976973056793213e-01</leafValues></_>
        <_>
          <internalNodes>
            0 -1 101 4.3983282521367073e-03</internalNodes>
          <leafValues>
            -3.7747359275817871e-01 7.0151168107986450e-01</leafValues></_>
        <_>
          <internalNodes>
            0 -1 88 4.5961667783558369e-03</internalNodes>
          <leafValues>
            -4.5664197206497192e-01 5.8147364854812622e-01</leafValues></_>
        <_>
          <internalNodes>
            0 -1 55 -3.8602270185947418e-02</internalNodes>
          <leafValues>
            7.7024340629577637e-01 -3.2171735167503357e-01</leafValues></_></weakClassifiers></_>
    <!-- stage 1 -->
    <_>
      <maxWeakCount>7</maxWeakCount>
      <stageThreshold>-7.9725903272628784e-01</stageThreshold>
      <weakClassifiers>
        <_>
          <internalNodes>
            0 -1 21 1.9909258931875229e-02</internalNodes>
          <leafValues>
            -4.2385786771774292e-01 7.5590181350708008e-01</leafValues></_>
        <_>
          <internalNodes>
            0 -1 0 1.8064098060131073e-01</internalNodes>
          <leafValues>
            -2.8747186064720154e-01 7.9922902584075928e-01</leafValues></_>
        <_>
          <internalNodes>
            0 -1 46 -7.7701434493064880e-03</internalNodes>
          <leafValues>
            4.0585243701934814e-01 -7.0163452625274658e-01</leafValues></_>
        <_>
          <internalNodes>
            0 -1 108 8.8815372437238693e-03</internalNodes>
          <leafValues>
            -3.1021881103515625e-01 8.2136213779449463e-01</leafValues></_>
        <_>
          <internalNodes>
            0 -1 88 5.1536504179239273e-03</internalNodes>
          <leafValues>
            -3.9724323153495789e-01 5.2491247653961182e-01</leafValues></_>
        <_>
          <internalNodes>
            0 -1 78 6.1809383332729340e-03</internalNodes>
          <leafValues>
            -3.4806695580482483e-01 6.1253666877746582e-01</leafValues></_>
        <_>
          <internalNodes>
            0 -1 98 5.6966468691825867e-03</internalNodes>
          <leafValues>
            -3.5840845108032227e-01 6.3138031959533691e-01</leafValues></_></weakClassifiers></_>
    <!-- stage 2 -->
    <_>
      <maxWeakCount>10</maxWeakCount>
      <stageThreshold>-7.3679429292678833e-01</stageThreshold>
      <weakClassifiers>
        <_>
          <internalNodes>
            0 -1 49 4.4984456151723862e-02</internalNodes>
          <leafValues>
            -2.8828829526901245e-01 7.5406503677368164e-01</leafValues></_>
        <_>
          <internalNodes>
            0 -1 12 1.4075214974582195e-02</internalNodes>
          <leafValues>
            -4.7788241505622864e-01 5.4994714260101318e-01</leafValues></_>
        <_>
          <internalNodes>
            0 -1 5 1.2519666925072670e-02</internalNodes>
          <leafValues>
            -3.1268668174743652e-01 5.5415058135986328e-01</leafValues></_>
        <_>
          <internalNodes>
            0 -1 54 -4.8225611448287964e-02</internalNodes>
          <leafValues>
            7.6113873720169067e-01 -2.2025439143180847e-01</leafValues></_>
        <_>
          <internalNodes>
            0 -1 102 2.7123428881168365e-03</internalNodes>
          <leafValues>
            -3.6655637621879578e-01 5.3614568710327148e-01</leafValues></_>
        <_>
          <internalNodes>
            0 -1 84 -6.3794967718422413e-04</internalNodes>
          <leafValues>
            -8.1950700283050537e-01 1.9320257008075714e-01</leafValues></_>
        <_>
          <internalNodes>
            0 -1 83 3.0971923843026161e-04</internalNodes>
          <leafValues>
            2.0741696655750275e-01 -7.5954419374465942e-01</leafValues></_>
        <_>
          <internalNodes>
            0 -1 111 5.2356189116835594e-03</internalNodes>
          <leafValues>
            -2.6872327923774719e-01 7.4832284450531006e-01</leafValues></_>
        <_>
          <internalNodes>
            0 -1 109 -9.9838729947805405e-03</internalNodes>
          <leafValues>
            7.8219926357269287e-01 -2.4405935406684875e-01</leafValues></_>
        <_>
          <internalNodes>
            0 -1 28 -2.3980805650353432e-02</internalNodes>
          <leafValues>
            -7.7851897478103638e-01 2.3845878243446350e-01</leafValues></_></weakClassifiers></_>
    <!-- stage 3 -->
    <_>
      <maxWeakCount>10</maxWeakCount>
      <stageThreshold>-9.8472392559051514e-01</stageThreshold>
      <weakClassifiers>
        <_>
          <internalNodes>
            0 -1 47 9.4389170408248901e-03</internalNodes>
          <leafValues>
            -6.4473682641983032e-01 5.5423474311828613e-01</leafValues></_>
        <_>
          <internalNodes>
            0 -1 35 2.4863682687282562e-02</internalNodes>
          <leafValues>
            -3.9299750328063965e-01 5.7773029804229736e-01</leafValues></_>
        <_>
          <internalNodes>
            0 -1 64 -2.1032132208347321e-02</internalNodes>
          <leafValues>
            6.0546517372131348e-01 -3.2635423541069031e-01</leafValues></_>
        <_>
          <internalNodes>
            0 -1 73 2.9946789145469666e-03</internalNodes>
          <leafValues>
            -1.8416616320610046e-01 7.8907704353332520e-01</leafValues></_>
        <_>
          <internalNodes>
            0 -1 61 2.7260575443506241e-03</internalNodes>
          <leafValues>
            -3.1624367833137512e-01 7.7832406759262085e-01</leafValues></_>
        <_>
          <internalNodes>
            0 -1 13 4.2765140533447266e-02</internalNodes>
          <leafValues>
            2.3348702490329742e-01 -9.0516149997711182e-01</leafValues></_>
        <_>
          <internalNodes>
            0 -1 121 -7.5370417907834053e-03</internalNodes>
          <leafValues>
            6.7312455177307129e-01 -2.7128013968467712e-01</leafValues></_>
        <_>
          <internalNodes>
            0 -1 117 -3.8145002909004688e-03</internalNodes>
          <leafValues>
            7.0602470636367798e-01 -2.7009993791580200e-01</leafValues></_>
        <_>
          <internalNodes>
            0 -1 122 6.0644834302365780e-03</internalNodes>
          <leafValues>
            -1.7893199622631073e-01 7.9562848806381226e-01</leafValues></_>
        <_>
          <internalNodes>
            0 -1 68 -2.1945482876617461e-04</internalNodes>
          <leafValues>
            -7.0409286022186279e-01 2.4822105467319489e-01</leafValues></_></weakClassifiers></_>
    <!-- stage 4 -->
    <_>
      <maxWeakCount>10</maxWeakCount>
      <stageThreshold>-1.1055209636688232e+00</stageThreshold>
      <weakClassifiers>
        <_>
          <internalNodes>
            0 -1 11 -2.3691443726420403e-02</internalNodes>
          <leafValues>
            6.6627216339111328e-01 -2.5894737243652344e-01</leafValues></_>
        <_>
          <internalNodes>
            0 -1 94 -7.5176730751991272e-02</internalNodes>
          <leafValues>
            6.9554156064987183e-01 -2.3511283099651337e-01</leafValues></_>
        <_>
          <internalNodes>
            0 -1 110 6.9743562489748001e-03</internalNodes>
          <leafValues>
            -2.1946766972541809e-01 6.9024622440338135e-01</leafValues></_>
        <_>
          <internalNodes>
            0 -1 99 2.0828854758292437e-03</internalNodes>
          <leafValues>
            -3.3497500419616699e-01 5.1358824968338013e-01</leafValues></_>
        <_>
          <internalNodes>
            0 -1 34 -5.5536208674311638e-03</internalNodes>
          <leafValues>
            3.8746950030326843e-01 -4.3484014272689819e-01</leafValues></_>
        <_>
          <internalNodes>
            0 -1 44 2.4580131284892559e-03</internalNodes>
          <leafValues>
            -3.9406895637512207e-01 4.5176064968109131e-01</leafValues></_>
        <_>
          <internalNodes>
            0 -1 56 -3.1220853328704834e-02</internalNodes>
          <leafValues>
            5.6938815116882324e-01 -3.0923050642013550e-01</leafValues></_>
        <_>
          <internalNodes>
            0 -1 77 -8.0714037176221609e-04</internalNodes>
          <leafValues>
            -8.9182859659194946e-01 1.8198788166046143e-01</leafValues></_>
        <_>
          <internalNodes>
            0 -1 58 -1.5430575236678123e-02</internalNodes>
          <leafValues>
            7.4053329229354858e-01 -2.6490476727485657e-01</leafValues></_>
        <_>
          <internalNodes>
            0 -1 59 -4.8565736506134272e-04</internalNodes>
          <leafValues>
            -7.7976554632186890e-01 2.5432446599006653e-01</leafValues></_></weakClassifiers></_>
    <!-- stage 5 -->
    <_>
      <maxWeakCount>11</maxWeakCount>
      <stageThreshold>-1.1872276067733765e+00</stageThreshold>
      <weakClassifiers>
        <_>
          <internalNodes>
            0 -1 43 1.3886362314224243e-02</internalNodes>
          <leafValues>
            -2.7867460250854492e-01 6.7263305187225342e-01</leafValues></_>
        <_>
          <internalNodes>
            0 -1 4 1.6521774232387543e-02</internalNodes>
          <leafValues>
            -4.3234834074974060e-01 4.8976865410804749e-01</leafValues></_>
        <_>
          <internalNodes>
            0 -1 38 -1.6662888228893280e-02</internalNodes>
          <leafValues>
            -8.3446180820465088e-01 2.3805947601795197e-01</leafValues></_>
        <_>
          <internalNodes>
            0 -1 15 1.7624157480895519e-03</internalNodes>
          <leafValues>
            -4.1079413890838623e-01 4.0931266546249390e-01</leafValues></_>
        <_>
          <internalNodes>
            0 -1 32 -7.7280454570427537e-04</internalNodes>
          <leafValues>
            3.6311849951744080e-01 -4.6917417645454407e-01</leafValues></_>
        <_>
          <internalNodes>
            0 -1 108 7.1023381315171719e-03</internalNodes>
          <leafValues>
            -3.3857664465904236e-01 5.2804148197174072e-01</leafValues></_>
        <_>
          <internalNodes>
            0 -1 88 7.0967678911983967e-03</internalNodes>
          <leafValues>
            -3.0989712476730347e-01 5.2331888675689697e-01</leafValues></_>
        <_>
          <internalNodes>
            0 -1 40 1.2594491243362427e-02</internalNodes>
          <leafValues>
            -2.4503949284553528e-01 5.8828604221343994e-01</leafValues></_>
        <_>
          <internalNodes>
            0 -1 81 3.1790675129741430e-03</internalNodes>
          <leafValues>
            -1.5448854863643646e-01 7.3786252737045288e-01</leafValues></_>
        <_>
          <internalNodes>
            0 -1 72 2.2047068923711777e-03</internalNodes>
          <leafValues>
            -2.5823101401329041e-01 6.7539268732070923e-01</leafValues></_>
        <_>
          <internalNodes>
            0 -1 60 -3.3000901341438293e-02</internalNodes>
          <leafValues>
            4.8561003804206848e-01 -2.9490262269973755e-01</leafValues></_></weakClassifiers></_>
    <!-- stage 6 -->
    <_>
      <maxWeakCount>11</maxWeakCount>
      <stageThreshold>-1.2362769842147827e+00</stageThreshold>
      <weakClassifiers>
        <_>
          <internalNodes>
            0 -1 33 2.7432804927229881e-03</internalNodes>
          <leafValues>
            -5.3773581981658936e-01 6.3458400964736938e-01</leafValues></_>
        <_>
          <internalNodes>
            0 -1 85 -7.0719588547945023e-03</internalNodes>
          <leafValues>
            4.0372440218925476e-01 -6.1533474922180176e-01</leafValues></_>
        <_>
          <internalNodes>
            0 -1 27 1.3402152108028531e-03</internalNodes>
          <leafValues>
            -5.2938693761825562e-01 3.3019945025444031e-01</leafValues></_>
        <_>
          <internalNodes>
            0 -1 119 -7.2453333996236324e-04</internalNodes>
          <leafValues>
            4.3030855059623718e-01 -3.9432865381240845e-01</leafValues></_>
        <_>
          <internalNodes>
            0 -1 115 8.2281231880187988e-04</internalNodes>
          <leafValues>
            -3.8396677374839783e-01 4.1922062635421753e-01</leafValues></_>
        <_>
          <internalNodes>
            0 -1 23 7.4823747854679823e-04</internalNodes>
          <leafValues>
            -3.2103437185287476e-01 4.5668193697929382e-01</leafValues></_>
        <_>
          <internalNodes>
            0 -1 125 1.2529867235571146e-03</internalNodes>
          <leafValues>
            1.9455197453498840e-01 -7.5771790742874146e-01</leafValues></_>
        <_>
          <internalNodes>
            0 -1 7 1.7292583361268044e-03</internalNodes>
          <leafValues>
            1.2903727591037750e-01 -7.8809213638305664e-01</leafValues></_>
        <_>
          <internalNodes>
            0 -1 126 -6.4718420617282391e-04</internalNodes>
          <leafValues>
            -6.7239177227020264e-01 1.7134341597557068e-01</leafValues></_>
        <_>
          <internalNodes>
            0 -1 37 1.3174429535865784e-02</internalNodes>
          <leafValues>
            1.3252560794353485e-01 -6.9441801309585571e-01</leafValues></_>
        <_>
          <internalNodes>
            0 -1 41 7.8126965090632439e-03</internalNodes>
          <leafValues>
            -2.3051151633262634e-01 5.7676565647125244e-01</leafValues></_></weakClassifiers></_>
    <!-- stage 7 -->
    <_>
      <maxWeakCount>13</maxWeakCount>
      <stageThreshold>-8.7353408336639404e-01</stageThreshold>
      <weakClassifiers>
        <_>
          <internalNodes>
            0 -1 3 1.1588850757107139e-03</internalNodes>
          <leafValues>
            -1.7230008542537689e-01 6.2721610069274902e-01</leafValues></_>
        <_>
          <internalNodes>
            0 -1 105 8.5296831093728542e-04</internalNodes>
          <leafValues>
            -3.9921122789382935e-01 3.7664145231246948e-01</leafValues></_>
        <_>
          <internalNodes>
            0 -1 50 4.9975577741861343e-02</internalNodes>
          <leafValues>
            -2.9077628254890442e-01 4.6811184287071228e-01</leafValues></_>
        <_>
          <internalNodes>
            0 -1 124 -2.6231013180222362e-05</internalNodes>
          <leafValues>
            3.1942489743232727e-01 -4.3375399708747864e-01</leafValues></_>
        <_>
          <internalNodes>
            0 -1 113 3.0892880167812109e-03</internalNodes>
          <leafValues>
            -3.0359995365142822e-01 4.9916982650756836e-01</leafValues></_>
        <_>
          <internalNodes>
            0 -1 109 -1.1591294780373573e-02</internalNodes>
          <leafValues>
            7.2801965475082397e-01 -2.1469096839427948e-01</leafValues></_>
        <_>
          <internalNodes>
            0 -1 80 2.6129330508410931e-03</internalNodes>
          <leafValues>
            -1.8138462305068970e-01 6.4593499898910522e-01</leafValues></_>
        <_>
          <internalNodes>
            0 -1 71 2.4465811438858509e-03</internalNodes>
          <leafValues>
            -2.1626625955104828e-01 5.9358119964599609e-01</leafValues></_>
        <_>
          <internalNodes>
            0 -1 76 1.3367661740630865e-03</internalNodes>
          <leafValues>
            1.8328340351581573e-01 -7.9540687799453735e-01</leafValues></_>
        <_>
          <internalNodes>
            0 -1 76 -6.7251361906528473e-04</internalNodes>
          <leafValues>
            -7.8817117214202881e-01 1.9628107547760010e-01</leafValues></_>
        <_>
          <internalNodes>
            0 -1 31 -1.6888559330254793e-03</internalNodes>
          <leafValues>
            3.2229742407798767e-01 -3.6672461032867432e-01</leafValues></_>
        <_>
          <internalNodes>
            0 -1 30 3.9740460924804211e-03</internalNodes>
          <leafValues>
            -2.0644834637641907e-01 5.8992689847946167e-01</leafValues></_>
        <_>
          <internalNodes>
            0 -1 68 -5.0036283209919930e-04</internalNodes>
          <leafValues>
            -8.6399745941162109e-01 1.6947181522846222e-01</leafValues></_></weakClassifiers></_>
    <!-- stage 8 -->
    <_>
      <maxWeakCount>13</maxWeakCount>
      <stageThreshold>-7.9835176467895508e-01</stageThreshold>
      <weakClassifiers>
        <_>
          <internalNodes>
            0 -1 36 7.3890663683414459e-02</internalNodes>
          <leafValues>
            4.6269160509109497e-01 -8.2503771781921387e-01</leafValues></_>
        <_>
          <internalNodes>
            0 -1 2 3.4748762845993042e-02</internalNodes>
          <leafValues>
            -2.5872668623924255e-01 5.6255602836608887e-01</leafValues></_>
        <_>
          <internalNodes>
            0 -1 53 1.1192698366357945e-05</internalNodes>
          <leafValues>
            -5.4227387905120850e-01 2.5715637207031250e-01</leafValues></_>
        <_>
          <internalNodes>
            0 -1 118 -3.8909770082682371e-03</internalNodes>
          <leafValues>
            5.9714269638061523e-01 -2.5088819861412048e-01</leafValues></_>
        <_>
          <internalNodes>
            0 -1 89 4.1543431580066681e-03</internalNodes>
          <leafValues>
            -3.8929286599159241e-01 4.1287150979042053e-01</leafValues></_>
        <_>
          <internalNodes>
            0 -1 67 1.4287442900240421e-03</internalNodes>
          <leafValues>
            2.0219267904758453e-01 -7.7644425630569458e-01</leafValues></_>
        <_>
          <internalNodes>
            0 -1 90 3.6056682001799345e-03</internalNodes>
          <leafValues>
            -2.9812046885490417e-01 5.0315588712692261e-01</leafValues></_>
        <_>
          <internalNodes>
            0 -1 97 -7.4487742967903614e-03</internalNodes>
          <leafValues>
            6.4188927412033081e-01 -2.7513235807418823e-01</leafValues></_>
        <_>
          <internalNodes>
            0 -1 6 1.8715704791247845e-03</internalNodes>
          <leafValues>
            -3.6608234047889709e-01 4.4045051932334900e-01</leafValues></_>
        <_>
          <internalNodes>
            0 -1 82 2.2492283023893833e-03</internalNodes>
          <leafValues>
            -2.0131304860115051e-01 5.9461855888366699e-01</leafValues></_>
        <_>
          <internalNodes>
            0 -1 66 -5.1894906209781766e-04</internalNodes>
          <leafValues>
            -8.2396626472473145e-01 1.6385447978973389e-01</leafValues></_>
        <_>
          <internalNodes>
            0 -1 74 2.2024181671440601e-03</internalNodes>
          <leafValues>
            -2.5264856219291687e-01 5.3662049770355225e-01</leafValues></_>
        <_>
          <internalNodes>
            0 -1 106 8.2351705059409142e-03</internalNodes>
          <leafValues>
            -2.0134019851684570e-01 5.4063701629638672e-01</leafValues></_></weakClassifiers></_>
    <!-- stage 9 -->
    <_>
      <maxWeakCount>16</maxWeakCount>
      <stageThreshold>-9.7207665443420410e-01</stageThreshold>
      <weakClassifiers>
        <_>
          <internalNodes>
            0 -1 103 -9.7768520936369896e-04</internalNodes>
          <leafValues>
            5.8101755380630493e-01 -2.6951092481613159e-01</leafValues></_>
        <_>
          <internalNodes>
            0 -1 104 -4.2857759399339557e-04</internalNodes>
          <leafValues>
            3.4598705172538757e-01 -4.6006354689598083e-01</leafValues></_>
        <_>
          <internalNodes>
            0 -1 17 1.1940382421016693e-02</internalNodes>
          <leafValues>
            -1.9059719145298004e-01 7.1758496761322021e-01</leafValues></_>
        <_>
          <internalNodes>
            0 -1 18 -3.2243472523987293e-03</internalNodes>
          <leafValues>
            4.6595320105552673e-01 -2.5150966644287109e-01</leafValues></_>
        <_>
          <internalNodes>
            0 -1 10 1.5652875881642103e-03</internalNodes>
          <leafValues>
            -3.5607981681823730e-01 3.7358146905899048e-01</leafValues></_>
        <_>
          <internalNodes>
            0 -1 75 -1.9319931743666530e-04</internalNodes>
          <leafValues>
            -6.5971612930297852e-01 1.4785596728324890e-01</leafValues></_>
        <_>
          <internalNodes>
            0 -1 96 1.6430057585239410e-03</internalNodes>
          <leafValues>
            -2.8638374805450439e-01 4.3585580587387085e-01</leafValues></_>
        <_>
          <internalNodes>
            0 -1 108 9.4175636768341064e-03</internalNodes>
          <leafValues>
            -1.9342932105064392e-01 6.3104599714279175e-01</leafValues></_>
        <_>
          <internalNodes>
            0 -1 112 7.6569728553295135e-03</internalNodes>
          <leafValues>
            -1.9150476157665253e-01 6.7955809831619263e-01</leafValues></_>
        <_>
          <internalNodes>
            0 -1 16 -2.2792900563217700e-04</internalNodes>
          <leafValues>
            -4.7524747252464294e-01 2.6722332835197449e-01</leafValues></_>
        <_>
          <internalNodes>
            0 -1 22 -5.8783881831914186e-04</internalNodes>
          <leafValues>
            -7.9186153411865234e-01 1.2721590697765350e-01</leafValues></_>
        <_>
          <internalNodes>
            0 -1 51 3.3331539481878281e-02</internalNodes>
          <leafValues>
            -2.7969095110893250e-01 3.9861193299293518e-01</leafValues></_>
        <_>
          <internalNodes>
            0 -1 123 -1.6573186730965972e-03</internalNodes>
          <leafValues>
            3.8936030864715576e-01 -2.8365689516067505e-01</leafValues></_>
        <_>
          <internalNodes>
            0 -1 25 -6.6663935780525208e-02</internalNodes>
          <leafValues>
            6.4771234989166260e-01 -1.8515947461128235e-01</leafValues></_>
        <_>
          <internalNodes>
            0 -1 100 2.5081729982048273e-03</internalNodes>
          <leafValues>
            -1.9569109380245209e-01 5.1436853408813477e-01</leafValues></_>
        <_>
          <internalNodes>
            0 -1 93 1.8909897189587355e-03</internalNodes>
          <leafValues>
            1.3404840230941772e-01 -8.7571805715560913e-01</leafValues></_></weakClassifiers></_>
    <!-- stage 10 -->
    <_>
      <maxWeakCount>14</maxWeakCount>
      <stageThreshold>-9.8753267526626587e-01</stageThreshold>
      <weakClassifiers>
        <_>
          <internalNodes>
            0 -1 65 -4.7056234325282276e-04</internalNodes>
          <leafValues>
            -7.0731705427169800e-01 4.5620870590209961e-01</leafValues></_>
        <_>
          <internalNodes>
            0 -1 39 -5.3451884537935257e-02</internalNodes>
          <leafValues>
            3.9304330945014954e-01 -3.1043121218681335e-01</leafValues></_>
        <_>
          <internalNodes>
            0 -1 70 1.8932834267616272e-02</internalNodes>
          <leafValues>
            -1.5350702404975891e-01 7.4162226915359497e-01</leafValues></_>
        <_>
          <internalNodes>
            0 -1 114 -4.3370045023038983e-04</internalNodes>
          <leafValues>
            2.9696464538574219e-01 -4.6994486451148987e-01</leafValues></_>
        <_>
          <internalNodes>
            0 -1 63 -3.7008901126682758e-03</internalNodes>
          <leafValues>
            6.9183588027954102e-01 -2.1203902363777161e-01</leafValues></_>
        <_>
          <internalNodes>
            0 -1 116 -3.0309120193123817e-03</internalNodes>
          <leafValues>
            3.9720535278320313e-01 -3.8751560449600220e-01</leafValues></_>
        <_>
          <internalNodes>
            0 -1 62 3.0460029374808073e-03</internalNodes>
          <leafValues>
            -1.6692458093166351e-01 7.4549257755279541e-01</leafValues></_>
        <_>
          <internalNodes>
            0 -1 19 -4.5648778905160725e-04</internalNodes>
          <leafValues>
            -7.2226232290267944e-01 1.9358193874359131e-01</leafValues></_>
        <_>
          <internalNodes>
            0 -1 86 -4.5063596218824387e-02</internalNodes>
          <leafValues>
            -8.6026853322982788e-01 1.3187025487422943e-01</leafValues></_>
        <_>
          <internalNodes>
            0 -1 98 4.6902587637305260e-03</internalNodes>
          <leafValues>
            -3.2878440618515015e-01 3.8599839806556702e-01</leafValues></_>
        <_>
          <internalNodes>
            0 -1 79 6.8642194382846355e-03</internalNodes>
          <leafValues>
            -3.3417233824729919e-01 4.7769725322723389e-01</leafValues></_>
        <_>
          <internalNodes>
            0 -1 87 4.7239796258509159e-03</internalNodes>
          <leafValues>
            -3.1862047314643860e-01 4.1326999664306641e-01</leafValues></_>
        <_>
          <internalNodes>
            0 -1 45 2.3693617549724877e-05</internalNodes>
          <leafValues>
            -4.8479008674621582e-01 2.8158333897590637e-01</leafValues></_>
        <_>
          <internalNodes>
            0 -1 111 2.5444200728088617e-03</internalNodes>
          <leafValues>
            -2.9669794440269470e-01 4.2701163887977600e-01</leafValues></_></weakClassifiers></_>
    <!-- stage 11 -->
    <_>
      <maxWeakCount>16</maxWeakCount>
      <stageThreshold>-9.1753566265106201e-01</stageThreshold>
      <weakClassifiers>
        <_>
          <internalNodes>
            0 -1 29 4.0836904197931290e-02</internalNodes>
          <leafValues>
            4.4444444775581360e-01 -8.4210526943206787e-01</leafValues></_>
        <_>
          <internalNodes>
            0 -1 14 -1.5961393713951111e-02</internalNodes>
          <leafValues>
            -7.3871719837188721e-01 2.3098672926425934e-01</leafValues></_>
        <_>
          <internalNodes>
            0 -1 1 4.1786458343267441e-02</internalNodes>
          <leafValues>
            -3.2905337214469910e-01 4.3741434812545776e-01</leafValues></_>
        <_>
          <internalNodes>
            0 -1 8 -4.5039746910333633e-03</internalNodes>
          <leafValues>
            1.9530908763408661e-01 -5.9784507751464844e-01</leafValues></_>
        <_>
          <internalNodes>
            0 -1 69 1.9788844510912895e-02</internalNodes>
          <leafValues>
            -1.5210048854351044e-01 8.2978773117065430e-01</leafValues></_>
        <_>
          <internalNodes>
            0 -1 9 -8.3342967554926872e-03</internalNodes>
          <leafValues>
            -8.7796700000762939e-01 1.4471173286437988e-01</leafValues></_>
        <_>
          <internalNodes>
            0 -1 91 -2.4991113605210558e-05</internalNodes>
          <leafValues>
            1.8966734409332275e-01 -6.1497944593429565e-01</leafValues></_>
        <_>
          <internalNodes>
            0 -1 92 -2.2272001951932907e-03</internalNodes>
          <leafValues>
            -7.7102017402648926e-01 1.4914245903491974e-01</leafValues></_>
        <_>
          <internalNodes>
            0 -1 24 -8.2651531556621194e-05</internalNodes>
          <leafValues>
            2.1453604102134705e-01 -4.8065790534019470e-01</leafValues></_>
        <_>
          <internalNodes>
            0 -1 58 -1.8759537488222122e-02</internalNodes>
          <leafValues>
            6.9426780939102173e-01 -1.5938752889633179e-01</leafValues></_>
        <_>
          <internalNodes>
            0 -1 26 5.3233942016959190e-03</internalNodes>
          <leafValues>
            -3.9362531900405884e-01 2.9070714116096497e-01</leafValues></_>
        <_>
          <internalNodes>
            0 -1 95 3.0318610370159149e-03</internalNodes>
          <leafValues>
            -2.0808708667755127e-01 5.2793544530868530e-01</leafValues></_>
        <_>
          <internalNodes>
            0 -1 107 2.4920976720750332e-03</internalNodes>
          <leafValues>
            -1.4998529851436615e-01 6.1921697854995728e-01</leafValues></_>
        <_>
          <internalNodes>
            0 -1 48 5.6593818590044975e-03</internalNodes>
          <leafValues>
            -1.5154629945755005e-01 6.5232098102569580e-01</leafValues></_>
        <_>
          <internalNodes>
            0 -1 42 -1.2830379419028759e-02</internalNodes>
          <leafValues>
            6.4936494827270508e-01 -1.7310500144958496e-01</leafValues></_>
        <_>
          <internalNodes>
            0 -1 120 -2.5059254840016365e-02</internalNodes>
          <leafValues>
            -8.3975267410278320e-01 1.5071955323219299e-01</leafValues></_></weakClassifiers></_></stages>
  <features>
    <_>
      <rects>
        <_>
          0 5 24 15 -1.</_>
        <_>
          8 5 8 15 3.</_></rects>
      <tilted>0</tilted></_>
    <_>
      <rects>
        <_>
          0 17 24 1 -1.</_>
        <_>
          8 17 8 1 3.</_></rects>
      <tilted>0</tilted></_>
    <_>
      <rects>
        <_>
          3 11 8 8 -1.</_>
        <_>
          3 11 4 4 2.</_>
        <_>
          7 15 4 4 2.</_></rects>
      <tilted>0</tilted></_>
    <_>
      <rects>
        <_>
          3 13 4 1 -1.</_>
        <_>
          5 13 2 1 2.</_></rects>
      <tilted>0</tilted></_>
    <_>
      <rects>
        <_>
          3 17 18 1 -1.</_>
        <_>
          9 17 6 1 3.</_></rects>
      <tilted>0</tilted></_>
    <_>
      <rects>
        <_>
          4 8 4 8 -1.</_>
        <_>
          6 8 2 8 2.</_></rects>
      <tilted>0</tilted></_>
    <_>
      <rects>
        <_>
          4 9 4 1 -1.</_>
        <_>
          6 9 2 1 2.</_></rects>
      <tilted>0</tilted></_>
    <_>
      <rects>
        <_>
          4 10 2 3 -1.</_>
        <_>
          4 11 2 1 3.</_></rects>
      <tilted>0</tilted></_>
    <_>
      <rects>
        <_>
          4 10 10 4 -1.</_>
        <_>
          9 10 5 4 2.</_></rects>
      <tilted>0</tilted></_>
    <_>
      <rects>
        <_>
          4 12 3 4 -1.</_>
        <_>
          4 14 3 2 2.</_></rects>
      <tilted>0</tilted></_>
    <_>
      <rects>
        <_>
          4 15 4 1 -1.</_>
        <_>
          6 15 2 1 2.</_></rects>
      <tilted>0</tilted></_>
    <_>
      <rects>
        <_>
          5 6 8 8 -1.</_>
        <_>
          5 6 4 4 2.</_>
        <_>
          9 10 4 4 2.</_></rects>
      <tilted>0</tilted></_>
    <_>
      <rects>
        <_>
          5 6 15 2 -1.</_>
        <_>
          10 6 5 2 3.</_></rects>
      <tilted>0</tilted></_>
    <_>
      <rects>
        <_>
          5 7 12 10 -1.</_>
        <_>
          11 7 6 10 2.</_></rects>
      <tilted>0</tilted></_>
    <_>
      <rects>
        <_>
          5 7 14 10 -1.</_>
        <_>
          12 7 7 10 2.</_></rects>
      <tilted>0</tilted></_>
    <_>
      <rects>
        <_>
          5 8 4 1 -1.</_>
        <_>
          7 8 2 1 2.</_></rects>
      <tilted>0</tilted></_>
    <_>
      <rects>
        <_>
          5 10 1 3 -1.</_>
        <_>
          5 11 1 1 3.</_></rects>
      <tilted>0</tilted></_>
    <_>
      <rects>
        <_>
          5 10 3 4 -1.</_>
        <_>
          6 10 1 4 3.</_></rects>
      <tilted>0</tilted></_>
    <_>
      <rects>
        <_>
          5 10 3 5 -1.</_>
        <_>
          6 10 1 5 3.</_></rects>
      <tilted>0</tilted></_>
    <_>
      <rects>
        <_>
          5 11 1 3 -1.</_>
        <_>
          5 12 1 1 3.</_></rects>
      <tilted>0</tilted></_>
    <_>
      <rects>
        <_>
          5 11 12 4 -1.</_>
        <_>
          9 11 4 4 3.</_></rects>
      <tilted>0</tilted></_>
    <_>
      <rects>
        <_>
          5 11 8 8 -1.</_>
        <_>
          5 11 4 4 2.</_>
        <_>
          9 15 4 4 2.</_></rects>
      <tilted>0</tilted></_>
    <_>
      <rects>
        <_>
          5 12 1 3 -1.</_>
        <_>
          5 13 1 1 3.</_></rects>
      <tilted>0</tilted></_>
    <_>
      <rects>
        <_>
          5 14 2 1 -1.</_>
        <_>
          6 14 1 1 2.</_></rects>
      <tilted>0</tilted></_>
    <_>
      <rects>
        <_>
          5 14 2 2 -1.</_>
        <_>
          5 15 2 1 2.</_></rects>
      <tilted>0</tilted></_>
    <_>
      <rects>
        <_>
          5 17 12 6 -1.</_>
        <_>
          5 20 12 3 2.</_></rects>
      <tilted>0</tilted></_>
    <_>
      <rects>
        <_>
          6 5 14 2 -1.</_>
        <_>
          6 6 14 1 2.</_></rects>
      <tilted>0</tilted></_>
    <_>
      <rects>
        <_>
          6 6 4 2 -1.</_>
        <_>
          8 6 2 2 2.</_></rects>
      <tilted>0</tilted></_>
    <_>
      <rects>
        <_>
          6 7 12 11 -1.</_>
        <_>
          12 7 6 11 2.</_></rects>
      <tilted>0</tilted></_>
    <_>
      <rects>
        <_>
          6 7 14 10 -1.</_>
        <_>
          13 7 7 10 2.</_></rects>
      <tilted>0</tilted></_>
    <_>
      <rects>
        <_>
          6 10 2 3 -1.</_>
        <_>
          7 10 1 3 2.</_></rects>
      <tilted>0</tilted></_>
    <_>
      <rects>
        <_>
          6 15 4 2 -1.</_>
        <_>
          6 16 4 1 2.</_></rects>
      <tilted>0</tilted></_>
    <_>
      <rects>
        <_>
          6 16 3 2 -1.</_>
        <_>
          6 17 3 1 2.</_></rects>
      <tilted>0</tilted></_>
    <_>
      <rects>
        <_>
          6 16 6 3 -1.</_>
        <_>
          9 16 3 3 2.</_></rects>
      <tilted>0</tilted></_>
    <_>
      <rects>
        <_>
          6 17 12 2 -1.</_>
        <_>
          6 18 12 1 2.</_></rects>
      <tilted>0</tilted></_>
    <_>
      <rects>
        <_>
          7 4 10 4 -1.</_>
        <_>
          7 6 10 2 2.</_></rects>
      <tilted>0</tilted></_>
    <_>
      <rects>
        <_>
          7 5 11 14 -1.</_>
        <_>
          7 12 11 7 2.</_></rects>
      <tilted>0</tilted></_>
    <_>
      <rects>
        <_>
          7 6 4 14 -1.</_>
        <_>
          9 6 2 14 2.</_></rects>
      <tilted>0</tilted></_>
    <_>
      <rects>
        <_>
          7 7 12 9 -1.</_>
        <_>
          13 7 6 9 2.</_></rects>
      <tilted>0</tilted></_>
    <_>
      <rects>
        <_>
          7 8 6 9 -1.</_>
        <_>
          7 11 6 3 3.</_></rects>
      <tilted>0</tilted></_>
    <_>
      <rects>
        <_>
          7 8 11 3 -1.</_>
        <_>
          7 9 11 1 3.</_></rects>
      <tilted>0</tilted></_>
    <_>
      <rects>
        <_>
          7 10 5 3 -1.</_>
        <_>
          7 11 5 1 3.</_></rects>
      <tilted>0</tilted></_>
    <_>
      <rects>
        <_>
          7 11 5 3 -1.</_>
        <_>
          7 12 5 1 3.</_></rects>
      <tilted>0</tilted></_>
    <_>
      <rects>
        <_>
          8 4 8 4 -1.</_>
        <_>
          8 6 8 2 2.</_></rects>
      <tilted>0</tilted></_>
    <_>
      <rects>
        <_>
          8 5 1 4 -1.</_>
        <_>
          8 7 1 2 2.</_></rects>
      <tilted>0</tilted></_>
    <_>
      <rects>
        <_>
          8 6 2 1 -1.</_>
        <_>
          9 6 1 1 2.</_></rects>
      <tilted>0</tilted></_>
    <_>
      <rects>
        <_>
          8 6 10 8 -1.</_>
        <_>
          8 10 10 4 2.</_></rects>
      <tilted>0</tilted></_>
    <_>
      <rects>
        <_>
          8 10 10 8 -1.</_>
        <_>
          8 14 10 4 2.</_></rects>
      <tilted>0</tilted></_>
    <_>
      <rects>
        <_>
          8 11 2 3 -1.</_>
        <_>
          8 12 2 1 3.</_></rects>
      <tilted>0</tilted></_>
    <_>
      <rects>
        <_>
          8 12 6 9 -1.</_>
        <_>
          8 15 6 3 3.</_></rects>
      <tilted>0</tilted></_>
    <_>
      <rects>
        <_>
          8 13 5 9 -1.</_>
        <_>
          8 16 5 3 3.</_></rects>
      <tilted>0</tilted></_>
    <_>
      <rects>
        <_>
          9 4 6 6 -1.</_>
        <_>
          9 6 6 2 3.</_></rects>
      <tilted>0</tilted></_>
    <_>
      <rects>
        <_>
          9 4 7 4 -1.</_>
        <_>
          9 6 7 2 2.</_></rects>
      <tilted>0</tilted></_>
    <_>
      <rects>
        <_>
          9 5 2 2 -1.</_>
        <_>
          10 5 1 2 2.</_></rects>
      <tilted>0</tilted></_>
    <_>
      <rects>
        <_>
          9 6 2 12 -1.</_>
        <_>
          9 10 2 4 3.</_></rects>
      <tilted>0</tilted></_>
    <_>
      <rects>
        <_>
          9 6 4 9 -1.</_>
        <_>
          9 9 4 3 3.</_></rects>
      <tilted>0</tilted></_>
    <_>
      <rects>
        <_>
          9 9 10 8 -1.</_>
        <_>
          9 9 5 4 2.</_>
        <_>
          14 13 5 4 2.</_></rects>
      <tilted>0</tilted></_>
    <_>
      <rects>
        <_>
          9 12 5 9 -1.</_>
        <_>
          9 15 5 3 3.</_></rects>
      <tilted>0</tilted></_>
    <_>
      <rects>
        <_>
          9 14 6 2 -1.</_>
        <_>
          11 14 2 2 3.</_></rects>
      <tilted>0</tilted></_>
    <_>
      <rects>
        <_>
          10 6 3 1 -1.</_>
        <_>
          11 6 1 1 3.</_></rects>
      <tilted>0</tilted></_>
    <_>
      <rects>
        <_>
          10 6 4 9 -1.</_>
        <_>
          10 9 4 3 3.</_></rects>
      <tilted>0</tilted></_>
    <_>
      <rects>
        <_>
          10 12 3 1 -1.</_>
        <_>
          11 12 1 1 3.</_></rects>
      <tilted>0</tilted></_>
    <_>
      <rects>
        <_>
          10 13 3 1 -1.</_>
        <_>
          11 13 1 1 3.</_></rects>
      <tilted>0</tilted></_>
    <_>
      <rects>
        <_>
          10 14 3 1 -1.</_>
        <_>
          11 14 1 1 3.</_></rects>
      <tilted>0</tilted></_>
    <_>
      <rects>
        <_>
          10 17 6 4 -1.</_>
        <_>
          10 19 6 2 2.</_></rects>
      <tilted>0</tilted></_>
    <_>
      <rects>
        <_>
          10 18 3 1 -1.</_>
        <_>
          11 18 1 1 3.</_></rects>
      <tilted>0</tilted></_>
    <_>
      <rects>
        <_>
          11 5 2 1 -1.</_>
        <_>
          12 5 1 1 2.</_></rects>
      <tilted>0</tilted></_>
    <_>
      <rects>
        <_>
          11 5 3 2 -1.</_>
        <_>
          12 5 1 2 3.</_></rects>
      <tilted>0</tilted></_>
    <_>
      <rects>
        <_>
          11 6 3 1 -1.</_>
        <_>
          12 6 1 1 3.</_></rects>
      <tilted>0</tilted></_>
    <_>
      <rects>
        <_>
          11 8 1 12 -1.</_>
        <_>
          11 12 1 4 3.</_></rects>
      <tilted>0</tilted></_>
    <_>
      <rects>
        <_>
          11 8 2 8 -1.</_>
        <_>
          11 12 2 4 2.</_></rects>
      <tilted>0</tilted></_>
    <_>
      <rects>
        <_>
          11 10 3 1 -1.</_>
        <_>
          12 10 1 1 3.</_></rects>
      <tilted>0</tilted></_>
    <_>
      <rects>
        <_>
          11 11 3 1 -1.</_>
        <_>
          12 11 1 1 3.</_></rects>
      <tilted>0</tilted></_>
    <_>
      <rects>
        <_>
          11 12 3 1 -1.</_>
        <_>
          12 12 1 1 3.</_></rects>
      <tilted>0</tilted></_>
    <_>
      <rects>
        <_>
          11 13 3 1 -1.</_>
        <_>
          12 13 1 1 3.</_></rects>
      <tilted>0</tilted></_>
    <_>
      <rects>
        <_>
          11 17 3 1 -1.</_>
        <_>
          12 17 1 1 3.</_></rects>
      <tilted>0</tilted></_>
    <_>
      <rects>
        <_>
          11 18 3 2 -1.</_>
        <_>
          12 18 1 2 3.</_></rects>
      <tilted>0</tilted></_>
    <_>
      <rects>
        <_>
          12 6 3 1 -1.</_>
        <_>
          13 6 1 1 3.</_></rects>
      <tilted>0</tilted></_>
    <_>
      <rects>
        <_>
          12 7 3 10 -1.</_>
        <_>
          13 7 1 10 3.</_></rects>
      <tilted>0</tilted></_>
    <_>
      <rects>
        <_>
          12 8 3 8 -1.</_>
        <_>
          13 8 1 8 3.</_></rects>
      <tilted>0</tilted></_>
    <_>
      <rects>
        <_>
          12 10 3 1 -1.</_>
        <_>
          13 10 1 1 3.</_></rects>
      <tilted>0</tilted></_>
    <_>
      <rects>
        <_>
          12 11 3 1 -1.</_>
        <_>
          13 11 1 1 3.</_></rects>
      <tilted>0</tilted></_>
    <_>
      <rects>
        <_>
          12 14 3 1 -1.</_>
        <_>
          13 14 1 1 3.</_></rects>
      <tilted>0</tilted></_>
    <_>
      <rects>
        <_>
          12 18 2 1 -1.</_>
        <_>
          13 18 1 1 2.</_></rects>
      <tilted>0</tilted></_>
    <_>
      <rects>
        <_>
          12 18 3 1 -1.</_>
        <_>
          13 18 1 1 3.</_></rects>
      <tilted>0</tilted></_>
    <_>
      <rects>
        <_>
          13 6 6 12 -1.</_>
        <_>
          16 6 3 12 2.</_></rects>
      <tilted>0</tilted></_>
    <_>
      <rects>
        <_>
          13 6 6 14 -1.</_>
        <_>
          16 6 3 14 2.</_></rects>
      <tilted>0</tilted></_>
    <_>
      <rects>
        <_>
          13 9 3 6 -1.</_>
        <_>
          14 9 1 6 3.</_></rects>
      <tilted>0</tilted></_>
    <_>
      <rects>
        <_>
          13 9 3 7 -1.</_>
        <_>
          14 9 1 7 3.</_></rects>
      <tilted>0</tilted></_>
    <_>
      <rects>
        <_>
          13 11 5 3 -1.</_>
        <_>
          13 12 5 1 3.</_></rects>
      <tilted>0</tilted></_>
    <_>
      <rects>
        <_>
          13 12 4 3 -1.</_>
        <_>
          13 13 4 1 3.</_></rects>
      <tilted>0</tilted></_>
    <_>
      <rects>
        <_>
          13 16 2 3 -1.</_>
        <_>
          14 16 1 3 2.</_></rects>
      <tilted>0</tilted></_>
    <_>
      <rects>
        <_>
          13 17 2 3 -1.</_>
        <_>
          14 17 1 3 2.</_></rects>
      <tilted>0</tilted></_>
    <_>
      <rects>
        <_>
          14 5 3 2 -1.</_>
        <_>
          15 5 1 2 3.</_></rects>
      <tilted>0</tilted></_>
    <_>
      <rects>
        <_>
          14 6 10 13 -1.</_>
        <_>
          19 6 5 13 2.</_></rects>
      <tilted>0</tilted></_>
    <_>
      <rects>
        <_>
          14 8 1 3 -1.</_>
        <_>
          14 9 1 1 3.</_></rects>
      <tilted>0</tilted></_>
    <_>
      <rects>
        <_>
          14 8 4 2 -1.</_>
        <_>
          14 9 4 1 2.</_></rects>
      <tilted>0</tilted></_>
    <_>
      <rects>
        <_>
          14 10 1 6 -1.</_>
        <_>
          14 12 1 2 3.</_></rects>
      <tilted>0</tilted></_>
    <_>
      <rects>
        <_>
          14 10 3 5 -1.</_>
        <_>
          15 10 1 5 3.</_></rects>
      <tilted>0</tilted></_>
    <_>
      <rects>
        <_>
          14 10 2 3 -1.</_>
        <_>
          14 11 2 1 3.</_></rects>
      <tilted>0</tilted></_>
    <_>
      <rects>
        <_>
          14 11 1 3 -1.</_>
        <_>
          14 12 1 1 3.</_></rects>
      <tilted>0</tilted></_>
    <_>
      <rects>
        <_>
          14 11 3 3 -1.</_>
        <_>
          15 11 1 3 3.</_></rects>
      <tilted>0</tilted></_>
    <_>
      <rects>
        <_>
          14 11 2 3 -1.</_>
        <_>
          14 12 2 1 3.</_></rects>
      <tilted>0</tilted></_>
    <_>
      <rects>
        <_>
          14 17 4 2 -1.</_>
        <_>
          14 18 4 1 2.</_></rects>
      <tilted>0</tilted></_>
    <_>
      <rects>
        <_>
          15 5 2 3 -1.</_>
        <_>
          16 5 1 3 2.</_></rects>
      <tilted>0</tilted></_>
    <_>
      <rects>
        <_>
          15 6 3 2 -1.</_>
        <_>
          15 7 3 1 2.</_></rects>
      <tilted>0</tilted></_>
    <_>
      <rects>
        <_>
          15 7 4 4 -1.</_>
        <_>
          15 7 2 2 2.</_>
        <_>
          17 9 2 2 2.</_></rects>
      <tilted>0</tilted></_>
    <_>
      <rects>
        <_>
          15 9 1 3 -1.</_>
        <_>
          15 10 1 1 3.</_></rects>
      <tilted>0</tilted></_>
    <_>
      <rects>
        <_>
          15 9 1 6 -1.</_>
        <_>
          15 11 1 2 3.</_></rects>
      <tilted>0</tilted></_>
    <_>
      <rects>
        <_>
          15 9 3 6 -1.</_>
        <_>
          16 9 1 6 3.</_></rects>
      <tilted>0</tilted></_>
    <_>
      <rects>
        <_>
          15 10 1 6 -1.</_>
        <_>
          15 12 1 2 3.</_></rects>
      <tilted>0</tilted></_>
    <_>
      <rects>
        <_>
          15 11 3 2 -1.</_>
        <_>
          16 11 1 2 3.</_></rects>
      <tilted>0</tilted></_>
    <_>
      <rects>
        <_>
          15 11 1 6 -1.</_>
        <_>
          15 13 1 2 3.</_></rects>
      <tilted>0</tilted></_>
    <_>
      <rects>
        <_>
          15 12 3 2 -1.</_>
        <_>
          16 12 1 2 3.</_></rects>
      <tilted>0</tilted></_>
    <_>
      <rects>
        <_>
          15 17 2 2 -1.</_>
        <_>
          16 17 1 2 2.</_></rects>
      <tilted>0</tilted></_>
    <_>
      <rects>
        <_>
          16 7 2 2 -1.</_>
        <_>
          16 8 2 1 2.</_></rects>
      <tilted>0</tilted></_>
    <_>
      <rects>
        <_>
          16 7 4 2 -1.</_>
        <_>
          18 7 2 2 2.</_></rects>
      <tilted>0</tilted></_>
    <_>
      <rects>
        <_>
          16 11 2 2 -1.</_>
        <_>
          17 11 1 2 2.</_></rects>
      <tilted>0</tilted></_>
    <_>
      <rects>
        <_>
          16 13 2 4 -1.</_>
        <_>
          16 13 1 2 2.</_>
        <_>
          17 15 1 2 2.</_></rects>
      <tilted>0</tilted></_>
    <_>
      <rects>
        <_>
          16 16 2 2 -1.</_>
        <_>
          16 17 2 1 2.</_></rects>
      <tilted>0</tilted></_>
    <_>
      <rects>
        <_>
          17 7 4 9 -1.</_>
        <_>
          17 10 4 3 3.</_></rects>
      <tilted>0</tilted></_>
    <_>
      <rects>
        <_>
          17 8 2 8 -1.</_>
        <_>
          18 8 1 8 2.</_></rects>
      <tilted>0</tilted></_>
    <_>
      <rects>
        <_>
          17 11 3 3 -1.</_>
        <_>
          18 11 1 3 3.</_></rects>
      <tilted>0</tilted></_>
    <_>
      <rects>
        <_>
          17 14 2 2 -1.</_>
        <_>
          18 14 1 2 2.</_></rects>
      <tilted>0</tilted></_>
    <_>
      <rects>
        <_>
          17 15 1 2 -1.</_>
        <_>
          17 16 1 1 2.</_></rects>
      <tilted>0</tilted></_>
    <_>
      <rects>
        <_>
          18 11 2 3 -1.</_>
        <_>
          18 12 2 1 3.</_></rects>
      <tilted>0</tilted></_>
    <_>
      <rects>
        <_>
          19 11 1 3 -1.</_>
        <_>
          19 12 1 1 3.</_></rects>
      <tilted>0</tilted></_></features></cascade>
</opencv_storage>
