<?xml version="1.0"?>
<opencv_storage>
<cascade>
  <stageType>BOOST</stageType>
  <featureType>HAAR</featureType>
  <height>24</height>
  <width>24</width>
  <stageParams>
    <boostType>GAB</boostType>
    <minHitRate>9.9500000476837158e-01</minHitRate>
    <maxFalseAlarm>4.0000000596046448e-01</maxFalseAlarm>
    <weightTrimRate>9.4999999999999996e-01</weightTrimRate>
    <maxDepth>1</maxDepth>
    <maxWeakCount>100</maxWeakCount></stageParams>
  <featureParams>
    <maxCatCount>0</maxCatCount>
    <featSize>1</featSize>
    <mode>BASIC</mode></featureParams>
  <stageNum>2</stageNum>
  <stages>
    <!-- stage 0 -->
    <_>
      <maxWeakCount>6</maxWeakCount>
      <stageThreshold>-1.4351234436035156e+00</stageThreshold>
      <weakClassifiers>
        <_>
          <internalNodes>
            0 -1 6 2.3555379360914230e-02</internalNodes>
          <leafValues>
            -5.6945025920867920e-01 8.4349066019058228e-01</leafValues></_>
        <_>
          <internalNodes>
            0 -1 4 1.1474412865936756e-02</internalNodes>
          <leafValues>
            -4.7203126549720764e-01 7.4590188264846802e-01</leafValues></_>
        <_>
          <internalNodes>
            0 -1 1 -2.8152327984571457e-02</internalNodes>
          <leafValues>
            7.4933552742004395e-01 -3.2976973056793213e-01</leafValues></_>
        <_>
          <internalNodes>
            0 -1 10 4.3983282521367073e-03</internalNodes>
          <leafValues>
            -3.7747359275817871e-01 7.0151168107986450e-01</leafValues></_>
        <_>
          <internalNodes>
            0 -1 8 4.5961667783558369e-03</internalNodes>
          <leafValues>
            -4.5664197206497192e-01 5.8147364854812622e-01</leafValues></_>
        <_>
          <internalNodes>
            0 -1 5 -3.8602270185947418e-02</internalNodes>
          <leafValues>
            7.7024340629577637e-01 -3.2171735167503357e-01</leafValues></_></weakClassifiers></_>
    <!-- stage 1 -->
    <_>
      <maxWeakCount>7</maxWeakCount>
      <stageThreshold>-7.9725903272628784e-01</stageThreshold>
      <weakClassifiers>
        <_>
          <internalNodes>
            0 -1 2 1.9909258931875229e-02</internalNodes>
          <leafValues>
            -4.2385786771774292e-01 7.5590181350708008e-01</leafValues></_>
        <_>
          <internalNodes>
            0 -1 0 1.8064098060131073e-01</internalNodes>
          <leafValues>
            -2.8747186064720154e-01 7.9922902584075928e-01</leafValues></_>
        <_>
          <internalNodes>
            0 -1 3 -7.7701434493064880e-03</internalNodes>
          <leafValues>
            4.0585243701934814e-01 -7.0163452625274658e-01</leafValues></_>
        <_>
          <internalNodes>
            0 -1 11 8.8815372437238693e-03</internalNodes>
          <leafValues>
            -3.1021881103515625e-01 8.2136213779449463e-01</leafValues></_>
        <_>
          <internalNodes>
            0 -1 8 5.1536504179239273e-03</internalNodes>
          <leafValues>
            -3.9724323153495789e-01 5.2491247653961182e-01</leafValues></_>
        <_>
          <internalNodes>
            0 -1 7 6.1809383332729340e-03</internalNodes>
          <leafValues>
            -3.4806695580482483e-01 6.1253666877746582e-01</leafValues></_>
        <_>
          <internalNodes>
            0 -1 9 5.6966468691825867e-03</internalNodes>
          <leafValues>
            -3.5840845108032227e-01 6.3138031959533691e-01</leafValues></_></weakClassifiers></_></stages>
  <features>
    <_>
      <rects>
        <_>
          0 5 24 15 -1.</_>
        <_>
          8 5 8 15 3.</_></rects>
      <tilted>0</tilted></_>
    <_>
      <rects>
        <_>
          5 11 12 4 -1.</_>
        <_>
          9 11 4 4 3.</_></rects>
      <tilted>0</tilted></_>
    <_>
      <rects>
        <_>
          5 11 8 8 -1.</_>
        <_>
          5 11 4 4 2.</_>
        <_>
          9 15 4 4 2.</_></rects>
      <tilted>0</tilted></_>
    <_>
      <rects>
        <_>
          8 6 10 8 -1.</_>
        <_>
          8 10 10 4 2.</_></rects>
      <tilted>0</tilted></_>
    <_>
      <rects>
        <_>
          9 4 7 4 -1.</_>
        <_>
          9 6 7 2 2.</_></rects>
      <tilted>0</tilted></_>
    <_>
      <rects>
        <_>
          9 6 4 9 -1.</_>
        <_>
          9 9 4 3 3.</_></rects>
      <tilted>0</tilted></_>
    <_>
      <rects>
        <_>
          9 12 5 9 -1.</_>
        <_>
          9 15 5 3 3.</_></rects>
      <tilted>0</tilted></_>
    <_>
      <rects>
        <_>
          12 7 3 10 -1.</_>
        <_>
          13 7 1 10 3.</_></rects>
      <tilted>0</tilted></_>
    <_>
      <rects>
        <_>
          13 9 3 7 -1.</_>
        <_>
          14 9 1 7 3.</_></rects>
      <tilted>0</tilted></_>
    <_>
      <rects>
        <_>
          14 10 3 5 -1.</_>
        <_>
          15 10 1 5 3.</_></rects>
      <tilted>0</tilted></_>
    <_>
      <rects>
        <_>
          14 11 3 3 -1.</_>
        <_>
          15 11 1 3 3.</_></rects>
      <tilted>0</tilted></_>
    <_>
      <rects>
        <_>
          15 9 1 6 -1.</_>
        <_>
          15 11 1 2 3.</_></rects>
      <tilted>0</tilted></_></features></cascade>
</opencv_storage>
