<?xml version="1.0"?>
<opencv_storage>
<stage3>
  <maxWeakCount>10</maxWeakCount>
  <stageThreshold>-9.8472392559051514e-01</stageThreshold>
  <weakClassifiers>
    <_>
      <internalNodes>
        0 -1 95974 9.4389170408248901e-03</internalNodes>
      <leafValues>
        -6.4473682641983032e-01 5.5423474311828613e-01</leafValues></_>
    <_>
      <internalNodes>
        0 -1 84009 2.4863682687282562e-02</internalNodes>
      <leafValues>
        -3.9299750328063965e-01 5.7773029804229736e-01</leafValues></_>
    <_>
      <internalNodes>
        0 -1 113862 -2.1032132208347321e-02</internalNodes>
      <leafValues>
        6.0546517372131348e-01 -3.2635423541069031e-01</leafValues></_>
    <_>
      <internalNodes>
        0 -1 119596 2.9946789145469666e-03</internalNodes>
      <leafValues>
        -1.8416616320610046e-01 7.8907704353332520e-01</leafValues></_>
    <_>
      <internalNodes>
        0 -1 112492 2.7260575443506241e-03</internalNodes>
      <leafValues>
        -3.1624367833137512e-01 7.7832406759262085e-01</leafValues></_>
    <_>
      <internalNodes>
        0 -1 65864 4.2765140533447266e-02</internalNodes>
      <leafValues>
        2.3348702490329742e-01 -9.0516149997711182e-01</leafValues></_>
    <_>
      <internalNodes>
        0 -1 150317 -7.5370417907834053e-03</internalNodes>
      <leafValues>
        6.7312455177307129e-01 -2.7128013968467712e-01</leafValues></_>
    <_>
      <internalNodes>
        0 -1 147047 -3.8145002909004688e-03</internalNodes>
      <leafValues>
        7.0602470636367798e-01 -2.7009993791580200e-01</leafValues></_>
    <_>
      <internalNodes>
        0 -1 150839 6.0644834302365780e-03</internalNodes>
      <leafValues>
        -1.7893199622631073e-01 7.9562848806381226e-01</leafValues></_>
    <_>
      <internalNodes>
        0 -1 117434 -2.1945482876617461e-04</internalNodes>
      <leafValues>
        -7.0409286022186279e-01 2.4822105467319489e-01</leafValues></_></weakClassifiers></stage3>
</opencv_storage>
