<?xml version="1.0"?>
<opencv_storage>
<stage5>
  <maxWeakCount>11</maxWeakCount>
  <stageThreshold>-1.1872276067733765e+00</stageThreshold>
  <weakClassifiers>
    <_>
      <internalNodes>
        0 -1 92941 1.3886362314224243e-02</internalNodes>
      <leafValues>
        -2.7867460250854492e-01 6.7263305187225342e-01</leafValues></_>
    <_>
      <internalNodes>
        0 -1 48593 1.6521774232387543e-02</internalNodes>
      <leafValues>
        -4.3234834074974060e-01 4.8976865410804749e-01</leafValues></_>
    <_>
      <internalNodes>
        0 -1 85574 -1.6662888228893280e-02</internalNodes>
      <leafValues>
        -8.3446180820465088e-01 2.3805947601795197e-01</leafValues></_>
    <_>
      <internalNodes>
        0 -1 66177 1.7624157480895519e-03</internalNodes>
      <leafValues>
        -4.1079413890838623e-01 4.0931266546249390e-01</leafValues></_>
    <_>
      <internalNodes>
        0 -1 79679 -7.7280454570427537e-04</internalNodes>
      <leafValues>
        3.6311849951744080e-01 -4.6917417645454407e-01</leafValues></_>
    <_>
      <internalNodes>
        0 -1 142161 7.1023381315171719e-03</internalNodes>
      <leafValues>
        -3.3857664465904236e-01 5.2804148197174072e-01</leafValues></_>
    <_>
      <internalNodes>
        0 -1 131546 7.0967678911983967e-03</internalNodes>
      <leafValues>
        -3.0989712476730347e-01 5.2331888675689697e-01</leafValues></_>
    <_>
      <internalNodes>
        0 -1 86179 1.2594491243362427e-02</internalNodes>
      <leafValues>
        -2.4503949284553528e-01 5.8828604221343994e-01</leafValues></_>
    <_>
      <internalNodes>
        0 -1 126064 3.1790675129741430e-03</internalNodes>
      <leafValues>
        -1.5448854863643646e-01 7.3786252737045288e-01</leafValues></_>
    <_>
      <internalNodes>
        0 -1 119300 2.2047068923711777e-03</internalNodes>
      <leafValues>
        -2.5823101401329041e-01 6.7539268732070923e-01</leafValues></_>
    <_>
      <internalNodes>
        0 -1 110309 -3.3000901341438293e-02</internalNodes>
      <leafValues>
        4.8561003804206848e-01 -2.9490262269973755e-01</leafValues></_></weakClassifiers></stage5>
</opencv_storage>
